digraph Tree {
node [shape=box] ;
0 [label="sex=女性 <= 0.5\ngini = 0.438\nsamples = 984\nvalue = [665, 319]"] ;
1 [label="年龄 <= 13.5\ngini = 0.269\nsamples = 644\nvalue = [541, 103]"] ;
0 -> 1 [labeldistance=2.5, labelangle=45, headlabel="True"] ;
2 [label="pclass=3rd <= 0.5\ngini = 0.386\nsamples = 23\nvalue = [6, 17]"] ;
1 -> 2 ;
3 [label="gini = 0.0\nsamples = 13\nvalue = [0, 13]"] ;
2 -> 3 ;
4 [label="年龄 <= 3.5\ngini = 0.48\nsamples = 10\nvalue = [6, 4]"] ;
2 -> 4 ;
5 [label="年龄 <= 0.583\ngini = 0.375\nsamples = 4\nvalue = [1, 3]"] ;
4 -> 5 ;
6 [label="gini = 0.0\nsamples = 1\nvalue = [1, 0]"] ;
5 -> 6 ;
7 [label="gini = 0.0\nsamples = 3\nvalue = [0, 3]"] ;
5 -> 7 ;
8 [label="年龄 <= 7.5\ngini = 0.278\nsamples = 6\nvalue = [5, 1]"] ;
4 -> 8 ;
9 [label="gini = 0.0\nsamples = 4\nvalue = [4, 0]"] ;
8 -> 9 ;
10 [label="gini = 0.5\nsamples = 2\nvalue = [1, 1]"] ;
8 -> 10 ;
11 [label="pclass=1st <= 0.5\ngini = 0.239\nsamples = 621\nvalue = [535, 86]"] ;
1 -> 11 ;
12 [label="年龄 <= 37.0\ngini = 0.159\nsamples = 482\nvalue = [440, 42]"] ;
11 -> 12 ;
13 [label="年龄 <= 18.5\ngini = 0.167\nsamples = 445\nvalue = [404, 41]"] ;
12 -> 13 ;
14 [label="gini = 0.0\nsamples = 14\nvalue = [14, 0]"] ;
13 -> 14 ;
15 [label="年龄 <= 35.5\ngini = 0.172\nsamples = 431\nvalue = [390, 41]"] ;
13 -> 15 ;
16 [label="年龄 <= 34.5\ngini = 0.17\nsamples = 427\nvalue = [387, 40]"] ;
15 -> 16 ;
17 [label="年龄 <= 31.597\ngini = 0.172\nsamples = 420\nvalue = [380, 40]"] ;
16 -> 17 ;
18 [label="pclass=2nd <= 0.5\ngini = 0.168\nsamples = 400\nvalue = [363, 37]"] ;
17 -> 18 ;
19 [label="年龄 <= 28.5\ngini = 0.181\nsamples = 319\nvalue = [287, 32]"] ;
18 -> 19 ;
20 [label="年龄 <= 24.5\ngini = 0.14\nsamples = 53\nvalue = [49, 4]"] ;
19 -> 20 ;
21 [label="年龄 <= 20.5\ngini = 0.202\nsamples = 35\nvalue = [31, 4]"] ;
20 -> 21 ;
22 [label="年龄 <= 19.5\ngini = 0.26\nsamples = 13\nvalue = [11, 2]"] ;
21 -> 22 ;
23 [label="gini = 0.245\nsamples = 7\nvalue = [6, 1]"] ;
22 -> 23 ;
24 [label="gini = 0.278\nsamples = 6\nvalue = [5, 1]"] ;
22 -> 24 ;
25 [label="年龄 <= 22.5\ngini = 0.165\nsamples = 22\nvalue = [20, 2]"] ;
21 -> 25 ;
26 [label="gini = 0.0\nsamples = 9\nvalue = [9, 0]"] ;
25 -> 26 ;
27 [label="年龄 <= 23.5\ngini = 0.26\nsamples = 13\nvalue = [11, 2]"] ;
25 -> 27 ;
28 [label="gini = 0.278\nsamples = 6\nvalue = [5, 1]"] ;
27 -> 28 ;
29 [label="gini = 0.245\nsamples = 7\nvalue = [6, 1]"] ;
27 -> 29 ;
30 [label="gini = 0.0\nsamples = 18\nvalue = [18, 0]"] ;
20 -> 30 ;
31 [label="年龄 <= 30.5\ngini = 0.188\nsamples = 266\nvalue = [238, 28]"] ;
19 -> 31 ;
32 [label="年龄 <= 29.5\ngini = 0.444\nsamples = 6\nvalue = [4, 2]"] ;
31 -> 32 ;
33 [label="gini = 0.5\nsamples = 2\nvalue = [1, 1]"] ;
32 -> 33 ;
34 [label="gini = 0.375\nsamples = 4\nvalue = [3, 1]"] ;
32 -> 34 ;
35 [label="年龄 <= 31.097\ngini = 0.18\nsamples = 260\nvalue = [234, 26]"] ;
31 -> 35 ;
36 [label="gini = 0.0\nsamples = 1\nvalue = [1, 0]"] ;
35 -> 36 ;
37 [label="gini = 0.181\nsamples = 259\nvalue = [233, 26]"] ;
35 -> 37 ;
38 [label="年龄 <= 30.597\ngini = 0.116\nsamples = 81\nvalue = [76, 5]"] ;
18 -> 38 ;
39 [label="年龄 <= 21.5\ngini = 0.159\nsamples = 46\nvalue = [42, 4]"] ;
38 -> 39 ;
40 [label="gini = 0.0\nsamples = 10\nvalue = [10, 0]"] ;
39 -> 40 ;
41 [label="年龄 <= 22.5\ngini = 0.198\nsamples = 36\nvalue = [32, 4]"] ;
39 -> 41 ;
42 [label="gini = 0.375\nsamples = 4\nvalue = [3, 1]"] ;
41 -> 42 ;
43 [label="年龄 <= 23.5\ngini = 0.17\nsamples = 32\nvalue = [29, 3]"] ;
41 -> 43 ;
44 [label="gini = 0.0\nsamples = 6\nvalue = [6, 0]"] ;
43 -> 44 ;
45 [label="年龄 <= 24.5\ngini = 0.204\nsamples = 26\nvalue = [23, 3]"] ;
43 -> 45 ;
46 [label="gini = 0.444\nsamples = 3\nvalue = [2, 1]"] ;
45 -> 46 ;
47 [label="年龄 <= 25.5\ngini = 0.159\nsamples = 23\nvalue = [21, 2]"] ;
45 -> 47 ;
48 [label="gini = 0.0\nsamples = 6\nvalue = [6, 0]"] ;
47 -> 48 ;
49 [label="年龄 <= 26.5\ngini = 0.208\nsamples = 17\nvalue = [15, 2]"] ;
47 -> 49 ;
50 [label="gini = 0.375\nsamples = 4\nvalue = [3, 1]"] ;
49 -> 50 ;
51 [label="年龄 <= 29.5\ngini = 0.142\nsamples = 13\nvalue = [12, 1]"] ;
49 -> 51 ;
52 [label="gini = 0.0\nsamples = 5\nvalue = [5, 0]"] ;
51 -> 52 ;
53 [label="gini = 0.219\nsamples = 8\nvalue = [7, 1]"] ;
51 -> 53 ;
54 [label="gini = 0.056\nsamples = 35\nvalue = [34, 1]"] ;
38 -> 54 ;
55 [label="年龄 <= 32.5\ngini = 0.255\nsamples = 20\nvalue = [17, 3]"] ;
17 -> 55 ;
56 [label="pclass=2nd <= 0.5\ngini = 0.346\nsamples = 9\nvalue = [7, 2]"] ;
55 -> 56 ;
57 [label="gini = 0.32\nsamples = 5\nvalue = [4, 1]"] ;
56 -> 57 ;
58 [label="gini = 0.375\nsamples = 4\nvalue = [3, 1]"] ;
56 -> 58 ;
59 [label="pclass=3rd <= 0.5\ngini = 0.165\nsamples = 11\nvalue = [10, 1]"] ;
55 -> 59 ;
60 [label="年龄 <= 33.5\ngini = 0.219\nsamples = 8\nvalue = [7, 1]"] ;
59 -> 60 ;
61 [label="gini = 0.0\nsamples = 1\nvalue = [1, 0]"] ;
60 -> 61 ;
62 [label="gini = 0.245\nsamples = 7\nvalue = [6, 1]"] ;
60 -> 62 ;
63 [label="gini = 0.0\nsamples = 3\nvalue = [3, 0]"] ;
59 -> 63 ;
64 [label="gini = 0.0\nsamples = 7\nvalue = [7, 0]"] ;
16 -> 64 ;
65 [label="pclass=3rd <= 0.5\ngini = 0.375\nsamples = 4\nvalue = [3, 1]"] ;
15 -> 65 ;
66 [label="gini = 0.0\nsamples = 2\nvalue = [2, 0]"] ;
65 -> 66 ;
67 [label="gini = 0.5\nsamples = 2\nvalue = [1, 1]"] ;
65 -> 67 ;
68 [label="年龄 <= 44.5\ngini = 0.053\nsamples = 37\nvalue = [36, 1]"] ;
12 -> 68 ;
69 [label="gini = 0.0\nsamples = 20\nvalue = [20, 0]"] ;
68 -> 69 ;
70 [label="年龄 <= 45.5\ngini = 0.111\nsamples = 17\nvalue = [16, 1]"] ;
68 -> 70 ;
71 [label="pclass=2nd <= 0.5\ngini = 0.32\nsamples = 5\nvalue = [4, 1]"] ;
70 -> 71 ;
72 [label="gini = 0.5\nsamples = 2\nvalue = [1, 1]"] ;
71 -> 72 ;
73 [label="gini = 0.0\nsamples = 3\nvalue = [3, 0]"] ;
71 -> 73 ;
74 [label="gini = 0.0\nsamples = 12\nvalue = [12, 0]"] ;
70 -> 74 ;
75 [label="年龄 <= 56.5\ngini = 0.433\nsamples = 139\nvalue = [95, 44]"] ;
11 -> 75 ;
76 [label="年龄 <= 28.5\ngini = 0.456\nsamples = 125\nvalue = [81, 44]"] ;
75 -> 76 ;
77 [label="年龄 <= 22.5\ngini = 0.49\nsamples = 14\nvalue = [6, 8]"] ;
76 -> 77 ;
78 [label="年龄 <= 18.0\ngini = 0.375\nsamples = 4\nvalue = [3, 1]"] ;
77 -> 78 ;
79 [label="gini = 0.0\nsamples = 1\nvalue = [0, 1]"] ;
78 -> 79 ;
80 [label="gini = 0.0\nsamples = 3\nvalue = [3, 0]"] ;
78 -> 80 ;
81 [label="年龄 <= 23.5\ngini = 0.42\nsamples = 10\nvalue = [3, 7]"] ;
77 -> 81 ;
82 [label="gini = 0.0\nsamples = 1\nvalue = [0, 1]"] ;
81 -> 82 ;
83 [label="年龄 <= 24.5\ngini = 0.444\nsamples = 9\nvalue = [3, 6]"] ;
81 -> 83 ;
84 [label="gini = 0.5\nsamples = 2\nvalue = [1, 1]"] ;
83 -> 84 ;
85 [label="年龄 <= 27.5\ngini = 0.408\nsamples = 7\nvalue = [2, 5]"] ;
83 -> 85 ;
86 [label="年龄 <= 25.5\ngini = 0.32\nsamples = 5\nvalue = [1, 4]"] ;
85 -> 86 ;
87 [label="gini = 0.444\nsamples = 3\nvalue = [1, 2]"] ;
86 -> 87 ;
88 [label="gini = 0.0\nsamples = 2\nvalue = [0, 2]"] ;
86 -> 88 ;
89 [label="gini = 0.5\nsamples = 2\nvalue = [1, 1]"] ;
85 -> 89 ;
90 [label="年龄 <= 30.5\ngini = 0.438\nsamples = 111\nvalue = [75, 36]"] ;
76 -> 90 ;
91 [label="gini = 0.0\nsamples = 5\nvalue = [5, 0]"] ;
90 -> 91 ;
92 [label="年龄 <= 31.097\ngini = 0.449\nsamples = 106\nvalue = [70, 36]"] ;
90 -> 92 ;
93 [label="gini = 0.444\nsamples = 3\nvalue = [1, 2]"] ;
92 -> 93 ;
94 [label="年龄 <= 47.5\ngini = 0.442\nsamples = 103\nvalue = [69, 34]"] ;
92 -> 94 ;
95 [label="年龄 <= 45.5\ngini = 0.427\nsamples = 84\nvalue = [58, 26]"] ;
94 -> 95 ;
96 [label="年龄 <= 33.5\ngini = 0.447\nsamples = 74\nvalue = [49, 25]"] ;
95 -> 96 ;
97 [label="年龄 <= 32.5\ngini = 0.422\nsamples = 53\nvalue = [37, 16]"] ;
96 -> 97 ;
98 [label="年龄 <= 31.597\ngini = 0.431\nsamples = 51\nvalue = [35, 16]"] ;
97 -> 98 ;
99 [label="gini = 0.42\nsamples = 50\nvalue = [35, 15]"] ;
98 -> 99 ;
100 [label="gini = 0.0\nsamples = 1\nvalue = [0, 1]"] ;
98 -> 100 ;
101 [label="gini = 0.0\nsamples = 2\nvalue = [2, 0]"] ;
97 -> 101 ;
102 [label="年龄 <= 35.5\ngini = 0.49\nsamples = 21\nvalue = [12, 9]"] ;
96 -> 102 ;
103 [label="gini = 0.0\nsamples = 2\nvalue = [0, 2]"] ;
102 -> 103 ;
104 [label="年龄 <= 38.5\ngini = 0.465\nsamples = 19\nvalue = [12, 7]"] ;
102 -> 104 ;
105 [label="年龄 <= 37.5\ngini = 0.5\nsamples = 6\nvalue = [3, 3]"] ;
104 -> 105 ;
106 [label="年龄 <= 36.5\ngini = 0.48\nsamples = 5\nvalue = [3, 2]"] ;
105 -> 106 ;
107 [label="gini = 0.5\nsamples = 2\nvalue = [1, 1]"] ;
106 -> 107 ;
108 [label="gini = 0.444\nsamples = 3\nvalue = [2, 1]"] ;
106 -> 108 ;
109 [label="gini = 0.0\nsamples = 1\nvalue = [0, 1]"] ;
105 -> 109 ;
110 [label="年龄 <= 41.5\ngini = 0.426\nsamples = 13\nvalue = [9, 4]"] ;
104 -> 110 ;
111 [label="年龄 <= 39.5\ngini = 0.278\nsamples = 6\nvalue = [5, 1]"] ;
110 -> 111 ;
112 [label="gini = 0.444\nsamples = 3\nvalue = [2, 1]"] ;
111 -> 112 ;
113 [label="gini = 0.0\nsamples = 3\nvalue = [3, 0]"] ;
111 -> 113 ;
114 [label="年龄 <= 43.0\ngini = 0.49\nsamples = 7\nvalue = [4, 3]"] ;
110 -> 114 ;
115 [label="gini = 0.444\nsamples = 3\nvalue = [2, 1]"] ;
114 -> 115 ;
116 [label="年龄 <= 44.5\ngini = 0.5\nsamples = 4\nvalue = [2, 2]"] ;
114 -> 116 ;
117 [label="gini = 0.5\nsamples = 2\nvalue = [1, 1]"] ;
116 -> 117 ;
118 [label="gini = 0.5\nsamples = 2\nvalue = [1, 1]"] ;
116 -> 118 ;
119 [label="年龄 <= 46.5\ngini = 0.18\nsamples = 10\nvalue = [9, 1]"] ;
95 -> 119 ;
120 [label="gini = 0.0\nsamples = 5\nvalue = [5, 0]"] ;
119 -> 120 ;
121 [label="gini = 0.32\nsamples = 5\nvalue = [4, 1]"] ;
119 -> 121 ;
122 [label="年龄 <= 49.5\ngini = 0.488\nsamples = 19\nvalue = [11, 8]"] ;
94 -> 122 ;
123 [label="年龄 <= 48.5\ngini = 0.444\nsamples = 6\nvalue = [2, 4]"] ;
122 -> 123 ;
124 [label="gini = 0.5\nsamples = 2\nvalue = [1, 1]"] ;
123 -> 124 ;
125 [label="gini = 0.375\nsamples = 4\nvalue = [1, 3]"] ;
123 -> 125 ;
126 [label="年龄 <= 51.5\ngini = 0.426\nsamples = 13\nvalue = [9, 4]"] ;
122 -> 126 ;
127 [label="gini = 0.0\nsamples = 4\nvalue = [4, 0]"] ;
126 -> 127 ;
128 [label="年龄 <= 54.5\ngini = 0.494\nsamples = 9\nvalue = [5, 4]"] ;
126 -> 128 ;
129 [label="年龄 <= 53.0\ngini = 0.5\nsamples = 6\nvalue = [3, 3]"] ;
128 -> 129 ;
130 [label="gini = 0.5\nsamples = 2\nvalue = [1, 1]"] ;
129 -> 130 ;
131 [label="gini = 0.5\nsamples = 4\nvalue = [2, 2]"] ;
129 -> 131 ;
132 [label="年龄 <= 55.5\ngini = 0.444\nsamples = 3\nvalue = [2, 1]"] ;
128 -> 132 ;
133 [label="gini = 0.0\nsamples = 1\nvalue = [1, 0]"] ;
132 -> 133 ;
134 [label="gini = 0.5\nsamples = 2\nvalue = [1, 1]"] ;
132 -> 134 ;
135 [label="gini = 0.0\nsamples = 14\nvalue = [14, 0]"] ;
75 -> 135 ;
136 [label="pclass=3rd <= 0.5\ngini = 0.463\nsamples = 340\nvalue = [124, 216]"] ;
0 -> 136 [labeldistance=2.5, labelangle=-45, headlabel="False"] ;
137 [label="pclass=2nd <= 0.5\ngini = 0.187\nsamples = 182\nvalue = [19, 163]"] ;
136 -> 137 ;
138 [label="年龄 <= 8.0\ngini = 0.112\nsamples = 101\nvalue = [6, 95]"] ;
137 -> 138 ;
139 [label="gini = 0.0\nsamples = 1\nvalue = [1, 0]"] ;
138 -> 139 ;
140 [label="年龄 <= 62.5\ngini = 0.095\nsamples = 100\nvalue = [5, 95]"] ;
138 -> 140 ;
141 [label="年龄 <= 24.5\ngini = 0.08\nsamples = 96\nvalue = [4, 92]"] ;
140 -> 141 ;
142 [label="gini = 0.0\nsamples = 25\nvalue = [0, 25]"] ;
141 -> 142 ;
143 [label="年龄 <= 25.5\ngini = 0.106\nsamples = 71\nvalue = [4, 67]"] ;
141 -> 143 ;
144 [label="gini = 0.0\nsamples = 1\nvalue = [1, 0]"] ;
143 -> 144 ;
145 [label="年龄 <= 50.5\ngini = 0.082\nsamples = 70\nvalue = [3, 67]"] ;
143 -> 145 ;
146 [label="年龄 <= 49.5\ngini = 0.101\nsamples = 56\nvalue = [3, 53]"] ;
145 -> 146 ;
147 [label="年龄 <= 36.5\ngini = 0.07\nsamples = 55\nvalue = [2, 53]"] ;
146 -> 147 ;
148 [label="年龄 <= 35.5\ngini = 0.091\nsamples = 42\nvalue = [2, 40]"] ;
147 -> 148 ;
149 [label="年龄 <= 31.097\ngini = 0.051\nsamples = 38\nvalue = [1, 37]"] ;
148 -> 149 ;
150 [label="gini = 0.0\nsamples = 6\nvalue = [0, 6]"] ;
149 -> 150 ;
151 [label="年龄 <= 32.097\ngini = 0.061\nsamples = 32\nvalue = [1, 31]"] ;
149 -> 151 ;
152 [label="gini = 0.067\nsamples = 29\nvalue = [1, 28]"] ;
151 -> 152 ;
153 [label="gini = 0.0\nsamples = 3\nvalue = [0, 3]"] ;
151 -> 153 ;
154 [label="gini = 0.375\nsamples = 4\nvalue = [1, 3]"] ;
148 -> 154 ;
155 [label="gini = 0.0\nsamples = 13\nvalue = [0, 13]"] ;
147 -> 155 ;
156 [label="gini = 0.0\nsamples = 1\nvalue = [1, 0]"] ;
146 -> 156 ;
157 [label="gini = 0.0\nsamples = 14\nvalue = [0, 14]"] ;
145 -> 157 ;
158 [label="年龄 <= 63.5\ngini = 0.375\nsamples = 4\nvalue = [1, 3]"] ;
140 -> 158 ;
159 [label="gini = 0.5\nsamples = 2\nvalue = [1, 1]"] ;
158 -> 159 ;
160 [label="gini = 0.0\nsamples = 2\nvalue = [0, 2]"] ;
158 -> 160 ;
161 [label="年龄 <= 55.0\ngini = 0.269\nsamples = 81\nvalue = [13, 68]"] ;
137 -> 161 ;
162 [label="年龄 <= 17.5\ngini = 0.255\nsamples = 80\nvalue = [12, 68]"] ;
161 -> 162 ;
163 [label="gini = 0.0\nsamples = 12\nvalue = [0, 12]"] ;
162 -> 163 ;
164 [label="年龄 <= 44.5\ngini = 0.291\nsamples = 68\nvalue = [12, 56]"] ;
162 -> 164 ;
165 [label="年龄 <= 43.0\ngini = 0.312\nsamples = 62\nvalue = [12, 50]"] ;
164 -> 165 ;
166 [label="年龄 <= 27.5\ngini = 0.296\nsamples = 61\nvalue = [11, 50]"] ;
165 -> 166 ;
167 [label="年龄 <= 25.5\ngini = 0.388\nsamples = 19\nvalue = [5, 14]"] ;
166 -> 167 ;
168 [label="年龄 <= 22.5\ngini = 0.32\nsamples = 15\nvalue = [3, 12]"] ;
167 -> 168 ;
169 [label="年龄 <= 21.5\ngini = 0.397\nsamples = 11\nvalue = [3, 8]"] ;
168 -> 169 ;
170 [label="年龄 <= 18.5\ngini = 0.245\nsamples = 7\nvalue = [1, 6]"] ;
169 -> 170 ;
171 [label="gini = 0.375\nsamples = 4\nvalue = [1, 3]"] ;
170 -> 171 ;
172 [label="gini = 0.0\nsamples = 3\nvalue = [0, 3]"] ;
170 -> 172 ;
173 [label="gini = 0.5\nsamples = 4\nvalue = [2, 2]"] ;
169 -> 173 ;
174 [label="gini = 0.0\nsamples = 4\nvalue = [0, 4]"] ;
168 -> 174 ;
175 [label="年龄 <= 26.5\ngini = 0.5\nsamples = 4\nvalue = [2, 2]"] ;
167 -> 175 ;
176 [label="gini = 0.5\nsamples = 2\nvalue = [1, 1]"] ;
175 -> 176 ;
177 [label="gini = 0.5\nsamples = 2\nvalue = [1, 1]"] ;
175 -> 177 ;
178 [label="年龄 <= 29.5\ngini = 0.245\nsamples = 42\nvalue = [6, 36]"] ;
166 -> 178 ;
179 [label="gini = 0.0\nsamples = 6\nvalue = [0, 6]"] ;
178 -> 179 ;
180 [label="年龄 <= 30.5\ngini = 0.278\nsamples = 36\nvalue = [6, 30]"] ;
178 -> 180 ;
181 [label="gini = 0.48\nsamples = 5\nvalue = [2, 3]"] ;
180 -> 181 ;
182 [label="年龄 <= 37.0\ngini = 0.225\nsamples = 31\nvalue = [4, 27]"] ;
180 -> 182 ;
183 [label="年龄 <= 31.597\ngini = 0.191\nsamples = 28\nvalue = [3, 25]"] ;
182 -> 183 ;
184 [label="年龄 <= 31.097\ngini = 0.278\nsamples = 18\nvalue = [3, 15]"] ;
183 -> 184 ;
185 [label="gini = 0.0\nsamples = 1\nvalue = [0, 1]"] ;
184 -> 185 ;
186 [label="gini = 0.291\nsamples = 17\nvalue = [3, 14]"] ;
184 -> 186 ;
187 [label="gini = 0.0\nsamples = 10\nvalue = [0, 10]"] ;
183 -> 187 ;
188 [label="年龄 <= 39.0\ngini = 0.444\nsamples = 3\nvalue = [1, 2]"] ;
182 -> 188 ;
189 [label="gini = 0.0\nsamples = 1\nvalue = [1, 0]"] ;
188 -> 189 ;
190 [label="gini = 0.0\nsamples = 2\nvalue = [0, 2]"] ;
188 -> 190 ;
191 [label="gini = 0.0\nsamples = 1\nvalue = [1, 0]"] ;
165 -> 191 ;
192 [label="gini = 0.0\nsamples = 6\nvalue = [0, 6]"] ;
164 -> 192 ;
193 [label="gini = 0.0\nsamples = 1\nvalue = [1, 0]"] ;
161 -> 193 ;
194 [label="年龄 <= 5.5\ngini = 0.446\nsamples = 158\nvalue = [105, 53]"] ;
136 -> 194 ;
195 [label="gini = 0.0\nsamples = 3\nvalue = [0, 3]"] ;
194 -> 195 ;
196 [label="年龄 <= 32.5\ngini = 0.437\nsamples = 155\nvalue = [105, 50]"] ;
194 -> 196 ;
197 [label="年龄 <= 13.0\ngini = 0.423\nsamples = 145\nvalue = [101, 44]"] ;
196 -> 197 ;
198 [label="gini = 0.0\nsamples = 6\nvalue = [6, 0]"] ;
197 -> 198 ;
199 [label="年龄 <= 19.0\ngini = 0.433\nsamples = 139\nvalue = [95, 44]"] ;
197 -> 199 ;
200 [label="年龄 <= 17.5\ngini = 0.397\nsamples = 11\nvalue = [3, 8]"] ;
199 -> 200 ;
201 [label="年龄 <= 15.5\ngini = 0.278\nsamples = 6\nvalue = [1, 5]"] ;
200 -> 201 ;
202 [label="gini = 0.0\nsamples = 1\nvalue = [0, 1]"] ;
201 -> 202 ;
203 [label="年龄 <= 16.5\ngini = 0.32\nsamples = 5\nvalue = [1, 4]"] ;
201 -> 203 ;
204 [label="gini = 0.375\nsamples = 4\nvalue = [1, 3]"] ;
203 -> 204 ;
205 [label="gini = 0.0\nsamples = 1\nvalue = [0, 1]"] ;
203 -> 205 ;
206 [label="gini = 0.48\nsamples = 5\nvalue = [2, 3]"] ;
200 -> 206 ;
207 [label="年龄 <= 21.5\ngini = 0.404\nsamples = 128\nvalue = [92, 36]"] ;
199 -> 207 ;
208 [label="gini = 0.0\nsamples = 4\nvalue = [4, 0]"] ;
207 -> 208 ;
209 [label="年龄 <= 23.5\ngini = 0.412\nsamples = 124\nvalue = [88, 36]"] ;
207 -> 209 ;
210 [label="年龄 <= 22.5\ngini = 0.444\nsamples = 3\nvalue = [1, 2]"] ;
209 -> 210 ;
211 [label="gini = 0.5\nsamples = 2\nvalue = [1, 1]"] ;
210 -> 211 ;
212 [label="gini = 0.0\nsamples = 1\nvalue = [0, 1]"] ;
210 -> 212 ;
213 [label="年龄 <= 28.5\ngini = 0.404\nsamples = 121\nvalue = [87, 34]"] ;
209 -> 213 ;
214 [label="gini = 0.0\nsamples = 2\nvalue = [2, 0]"] ;
213 -> 214 ;
215 [label="年龄 <= 30.597\ngini = 0.408\nsamples = 119\nvalue = [85, 34]"] ;
213 -> 215 ;
216 [label="gini = 0.5\nsamples = 2\nvalue = [1, 1]"] ;
215 -> 216 ;
217 [label="年龄 <= 31.597\ngini = 0.405\nsamples = 117\nvalue = [84, 33]"] ;
215 -> 217 ;
218 [label="gini = 0.407\nsamples = 116\nvalue = [83, 33]"] ;
217 -> 218 ;
219 [label="gini = 0.0\nsamples = 1\nvalue = [1, 0]"] ;
217 -> 219 ;
220 [label="年龄 <= 36.5\ngini = 0.48\nsamples = 10\nvalue = [4, 6]"] ;
196 -> 220 ;
221 [label="gini = 0.0\nsamples = 4\nvalue = [0, 4]"] ;
220 -> 221 ;
222 [label="年龄 <= 37.5\ngini = 0.444\nsamples = 6\nvalue = [4, 2]"] ;
220 -> 222 ;
223 [label="gini = 0.0\nsamples = 1\nvalue = [1, 0]"] ;
222 -> 223 ;
224 [label="年龄 <= 38.5\ngini = 0.48\nsamples = 5\nvalue = [3, 2]"] ;
222 -> 224 ;
225 [label="gini = 0.0\nsamples = 1\nvalue = [0, 1]"] ;
224 -> 225 ;
226 [label="年龄 <= 44.0\ngini = 0.375\nsamples = 4\nvalue = [3, 1]"] ;
224 -> 226 ;
227 [label="gini = 0.0\nsamples = 2\nvalue = [2, 0]"] ;
226 -> 227 ;
228 [label="年龄 <= 46.5\ngini = 0.5\nsamples = 2\nvalue = [1, 1]"] ;
226 -> 228 ;
229 [label="gini = 0.0\nsamples = 1\nvalue = [0, 1]"] ;
228 -> 229 ;
230 [label="gini = 0.0\nsamples = 1\nvalue = [1, 0]"] ;
228 -> 230 ;
}